34 128
34 -0.055451278 0.087430581 -0.17687228 0.08021497 -0.12073001 0.032459818 0.013270244 0.11621746 0.12910506 -0.11121779 -0.18851224 0.010275621 -0.12360579 0.024761043 0.04342059 0.13187322 -0.17741682 -0.026123326 -0.049292289 0.20346479 0.018768067 -0.21492809 -0.23465466 0.10356732 -0.0034538605 -0.1120951 0.17351465 0.034738082 -0.067689754 0.036690746 0.2347175 0.18334194 -0.061536402 -0.083092697 0.077407874 -0.0468245 -0.0043868208 -0.17779836 0.1545909 -0.076060601 0.038301516 -0.10181118 0.04177738 -0.27233198 0.050581183 -0.075461999 0.080797046 0.023849206 -0.082292803 0.0041748839 0.17060128 0.11693161 0.064522468 -0.15592614 -0.28455448 -0.0090526547 0.10212333 0.08030428 0.066040583 0.1122833 -0.012890713 -0.13627072 -0.11316486 0.030993566 -0.0094587281 0.098005213 0.03140356 -0.11867841 0.007045072 -0.07627257 0.15995133 0.086177304 0.21274386 0.075754948 0.12772429 0.078241654 -0.21062113 -0.0127572 0.061007887 0.02362201 -0.11156058 0.0079425601 0.017142316 0.19427091 -0.13781029 -0.085661814 -0.12545261 0.10370446 0.085160188 0.050733421 -0.038517881 0.15327099 0.043576617 0.026934158 0.14923751 -0.030675773 0.12724006 -0.038961209 -0.034341954 -0.011916285 -0.059238918 -0.075688712 0.077683106 -0.12943991 -0.083981439 0.24664779 0.052357078 0.061984379 -0.10653273 -0.082909837 -0.12503639 -0.019192144 0.060008615 0.02747019 -0.068211995 -0.061031986 0.08993727 -0.16390292 0.067407653 0.029954361 0.070945501 -0.0049236966 0.033694506 0.081496567 0.19125535 -0.079608075 0.13947205 0.042940985
1 0.00020282483 0.068594977 -0.18799694 0.10994682 -0.019513331 0.014256858 -0.030908242 0.24875028 -0.0085971057 -0.079752214 -0.28102261 0.081320167 -0.041837025 0.18115261 0.12939841 0.1118961 -0.1734011 0.027484963 -0.03584158 0.12788558 -0.024510715 -0.19061397 -0.21278074 0.037893474 -0.1757243 -0.068304904 0.18929513 0.0033189415 -0.038167682 -0.025969781 0.12227628 0.21088918 -0.1242721 -0.088639177 -0.047647011 -0.075807698 0.099454053 -0.082524121 0.16884349 -0.16625814 0.066625468 -0.13882081 -0.053006615 -0.064868182 0.023831202 -0.072118312 -0.041104767 0.044702318 -0.015427938 0.090268441 0.14521261 0.072245426 0.11470544 -0.11211028 -0.22920121 -0.083380617 0.024820467 0.0097383857 0.088708468 0.080010772 -0.045204207 -0.12941897 -0.012362288 0.07611303 -0.024281189 0.066426434 0.02084028 -0.052831631 -0.026269984 -0.045666769 0.22010064 0.1488668 0.26362249 0.10626137 0.16834228 0.13600561 -0.11791178 -0.045341041 0.021132926 -0.0019946087 -0.037287757 -0.063182876 0.037586734 0.1889243 -0.094651915 -0.09779343 -0.080409445 0.066534311 0.075261891 0.13773268 -0.049958177 0.091021985 0.059505753 -0.0050382833 0.06153788 0.051102828 0.14783002 -0.13414253 0.022631757 -0.081206925 0.038529746 -0.046239857 0.050638162 -0.10772616 -0.049119826 0.18964946 0.065502688 0.16593845 -0.031898476 -0.018531209 -0.20712529 0.033878107 0.090726011 0.031839959 0.042249732 -0.16070753 0.12896994 -0.019942906 -0.0018057118 0.16834432 -0.036625173 0.15014525 0.011507977 -0.04166425 0.17899723 -0.084501803 0.00020071334 0.0043239901
33 -0.05395649 0.079896495 -0.18512951 0.082848214 -0.1174245 0.03763663 0.020055639 0.12854861 0.1177287 -0.11318398 -0.19755964 0.014738983 -0.1104609 0.042751409 0.051685959 0.13179709 -0.17554604 -0.017890841 -0.050520841 0.20185398 0.015240116 -0.21667492 -0.23599589 0.10411519 -0.014357293 -0.11791237 0.17147766 0.03057041 -0.071422234 0.035145473 0.2292922 0.18656595 -0.067234896 -0.079502851 0.06927596 -0.050142378 0.0033927669 -0.17100695 0.15736583 -0.08659479 0.04727808 -0.11012157 0.033286631 -0.26100793 0.047816012 -0.077265404 0.075927362 0.033661835 -0.073094048 0.015470209 0.17356168 0.11816054 0.06471432 -0.14643583 -0.27339724 -0.014810207 0.095432803 0.072416663 0.064222254 0.11075805 -0.014739996 -0.13106152 -0.11030567 0.036018036 -0.013836001 0.09813153 0.027664514 -0.12193121 0.0082796421 -0.077032253 0.16481183 0.093811125 0.22622219 0.076034255 0.1232788 0.083663501 -0.19670331 -0.019762643 0.058886152 0.023420867 -0.1139893 0.0052500921 0.02299563 0.20169345 -0.14116119 -0.085969627 -0.13345301 0.098536186 0.080839507 0.062355939 -0.048589397 0.15386803 0.050942533 0.026520282 0.14418095 -0.022638535 0.13643149 -0.056332428 -0.03213542 -0.020853257 -0.054711111 -0.068081126 0.072510347 -0.12633964 -0.080539457 0.24797498 0.062301803 0.080745108 -0.10336385 -0.074121401 -0.13444637 -0.017169284 0.067432366 0.031842679 -0.059050169 -0.0671883 0.092236497 -0.15441942 0.063780673 0.042292763 0.067082994 0.012543575 0.036265921 0.072083853 0.18669625 -0.083292201 0.12806925 0.041800674
3 -0.013958549 0.070772916 -0.18746063 0.097139716 -0.061346516 0.026144451 -0.013686239 0.19630767 0.035994645 -0.089321725 -0.24421033 0.05435681 -0.071395621 0.12141938 0.095670342 0.11802137 -0.1734243 0.011252603 -0.040505007 0.14919612 -0.011902791 -0.2021393 -0.22291631 0.06196082 -0.11001654 -0.083322108 0.18471693 0.015918931 -0.0434286 -0.0048382659 0.16730326 0.19955571 -0.10936619 -0.092020765 -0.0041794702 -0.066360503 0.062884316 -0.11902344 0.17303272 -0.13284793 0.05916689 -0.13055311 -0.02162342 -0.14463706 0.028984601 -0.079549141 -0.0029255312 0.037493113 -0.034382291 0.066870734 0.1608218 0.093657687 0.10041171 -0.1324894 -0.25677556 -0.062977806 0.054442473 0.038908634 0.081017882 0.10223278 -0.02808639 -0.1387943 -0.047073878 0.064202815 -0.021002885 0.081507578 0.030504605 -0.084578432 -0.016166223 -0.066203073 0.20941667 0.13255095 0.26341689 0.095643125 0.1606359 0.12014903 -0.15708739 -0.032032013 0.035062727 0.015062196 -0.062199075 -0.039033391 0.02555429 0.19839571 -0.11658422 -0.08931224 -0.10479325 0.081407115 0.080185771 0.10939692 -0.051749956 0.1169875 0.055585738 0.0064627966 0.097340651 0.027162762 0.13972519 -0.10761041 -0.0010925565 -0.058188178 -0.0015847322 -0.057701241 0.058473695 -0.11432903 -0.065410018 0.21761028 0.060394168 0.12982441 -0.061508209 -0.036289129 -0.17494695 0.016229197 0.079052255 0.029857943 0.0068153446 -0.1252932 0.11529602 -0.073812164 0.029052569 0.12207828 0.0055158897 0.091511212 0.019807791 -0.0025746697 0.18402834 -0.084049456 0.047607929 0.01555305
2 -0.017145541 0.082503535 -0.19628389 0.10410874 -0.047334358 0.025471115 -0.020424768 0.21502645 0.024041779 -0.080671787 -0.25700718 0.062551901 -0.067630403 0.13890824 0.1030058 0.11659519 -0.17437169 0.016089028 -0.036596287 0.14452387 -0.010294278 -0.20056967 -0.22455791 0.063479252 -0.13030453 -0.078920074 0.19610704 0.010612519 -0.047619455 -0.014632242 0.15795635 0.19816686 -0.11208387 -0.081494369 -0.016648158 -0.068249725 0.070237733 -0.10807594 0.17299356 -0.14580698 0.048644591 -0.12611613 -0.035912737 -0.11795033 0.023953263 -0.075612806 -0.011846378 0.034485787 -0.029008754 0.073098511 0.15150809 0.082468443 0.10160646 -0.12252108 -0.23775262 -0.070277423 0.038273416 0.02761282 0.080915421 0.087589934 -0.02974668 -0.12885417 -0.036939912 0.066329777 -0.020912129 0.076937124 0.021564996 -0.074529149 -0.017751548 -0.056585737 0.21037395 0.13570683 0.25534689 0.10231604 0.14774691 0.12382514 -0.14239931 -0.033927973 0.038293071 0.0031637601 -0.06007402 -0.04407648 0.029872566 0.19905576 -0.10355149 -0.092799664 -0.10510736 0.070277281 0.087362953 0.11312062 -0.047317889 0.10784153 0.056012858 0.0044441912 0.092766397 0.029570574 0.13476112 -0.1168942 2.5742105e-05 -0.068888947 0.006501175 -0.060453534 0.051806264 -0.10716073 -0.069124192 0.20732635 0.059997417 0.14029329 -0.053411026 -0.032808948 -0.18727201 0.01989257 0.080424771 0.029838994 0.014664307 -0.13288657 0.1111749 -0.055208001 0.021742541 0.13122496 -0.0032059606 0.1099159 0.017681522 -0.0075416197 0.17518996 -0.080738045 0.036192056 0.017790653
4 0.00049884839 0.07229875 -0.1885743 0.10752168 -0.026072767 0.021836128 -0.030108968 0.23534742 -0.0029507237 -0.075985484 -0.26872021 0.078951709 -0.047638264 0.16892926 0.121082 0.10444226 -0.1682193 0.027429668 -0.036373083 0.12463085 -0.023343036 -0.18931276 -0.21582939 0.046965323 -0.16215527 -0.068060651 0.18692695 0.0094023328 -0.040909871 -0.027213156 0.12998998 0.20394415 -0.12090779 -0.085831754 -0.044117153 -0.071533486 0.091487594 -0.083835438 0.16404739 -0.15523243 0.059486274 -0.13994145 -0.049671423 -0.076021612 0.015273161 -0.075177014 -0.041941062 0.038869806 -0.014161187 0.089102097 0.14815503 0.079293795 0.1159303 -0.11958864 -0.23648475 -0.084381163 0.026021741 0.012150312 0.086854979 0.085193433 -0.035814546 -0.13294223 -0.020357482 0.080819845 -0.022175267 0.057875685 0.026093652 -0.054076292 -0.025272384 -0.048615292 0.21380785 0.13635704 0.25510553 0.098562807 0.15451171 0.12847741 -0.11735255 -0.036945164 0.021463579 0.0030577932 -0.0364272 -0.053908344 0.032531321 0.18034273 -0.088779472 -0.091021426 -0.081203118 0.058955595 0.072844021 0.12756121 -0.048267115 0.086136073 0.05748545 -0.0058358498 0.066752307 0.047516547 0.13760383 -0.12691729 0.0092449812 -0.074777342 0.028974487 -0.049122568 0.046605013 -0.09822578 -0.059100904 0.18650971 0.064492837 0.15337898 -0.032815095 -0.019109724 -0.1983162 0.029762743 0.081666365 0.030841758 0.038357612 -0.15604201 0.12193046 -0.032058503 0.010487218 0.1611008 -0.032715451 0.1320232 0.015190721 -0.039620288 0.17200962 -0.078653514 0.0050503695 0.0076400395
32 -0.037781149 0.082063369 -0.18546335 0.084612079 -0.089230292 0.028323133 0.003749413 0.16317801 0.081721827 -0.098619319 -0.21716218 0.028233109 -0.098576084 0.079322062 0.073990144 0.12476113 -0.17419453 -0.000999243 -0.045081157 0.17385042 0.0039726556 -0.20891091 -0.22857255 0.083219759 -0.066218019 -0.09783598 0.17712849 0.017996101 -0.06044485 0.012725974 0.20102425 0.19396399 -0.089742191 -0.089864932 0.032921243 -0.055722445 0.033164904 -0.14613235 0.1626402 -0.104716 0.051707909 -0.1151063 0.0081618838 -0.20211993 0.042012166 -0.077684261 0.04227284 0.028631754 -0.058043748 0.0372946 0.16849224 0.10747425 0.084749892 -0.13818821 -0.26440611 -0.033052322 0.074044362 0.059667215 0.07052663 0.10909994 -0.021268934 -0.13252917 -0.073779739 0.044914901 -0.018952079 0.087122671 0.028649066 -0.095853269 0.0019504651 -0.069985218 0.17791618 0.1015889 0.23389193 0.080450214 0.13584505 0.097625904 -0.17534506 -0.020569863 0.044625606 0.018522672 -0.091321915 -0.0098071517 0.024848329 0.19280985 -0.12212249 -0.080843702 -0.11483742 0.087712727 0.082038492 0.077208564 -0.049713451 0.13245624 0.044475295 0.022156589 0.11787122 -0.0026159082 0.12667763 -0.071176827 -0.01452457 -0.041523039 -0.022375738 -0.058384337 0.065137282 -0.11349747 -0.074371569 0.22956972 0.060156912 0.10089127 -0.078659877 -0.062047806 -0.15171887 -0.0040643583 0.066065416 0.024990052 -0.028650081 -0.09322989 0.10068345 -0.11089941 0.049342237 0.075513385 0.03720009 0.045875721 0.020804839 0.039006699 0.18432763 -0.07234709 0.090608105 0.03165774
14 -0.011063438 0.077639125 -0.182055 0.097033083 -0.053347025 0.019705893 -0.012518195 0.19204442 0.028435905 -0.080864213 -0.23157299 0.049636044 -0.068828672 0.12459239 0.092440903 0.10710773 -0.16556531 0.011849002 -0.038670205 0.13693769 -0.0079687294 -0.19466887 -0.2103415 0.059632618 -0.11272962 -0.074868202 0.17905051 0.01694678 -0.048826687 -0.008444014 0.14759155 0.1825287 -0.10207192 -0.082614608 -0.0097143464 -0.065974146 0.055516277 -0.11222237 0.16226916 -0.13005516 0.044059772 -0.11804858 -0.025900567 -0.12518986 0.027947858 -0.071562096 -0.0025866663 0.029453566 -0.030251972 0.06269329 0.1498085 0.081376955 0.094752431 -0.12601669 -0.23170166 -0.060305022 0.040168207 0.031117691 0.078254409 0.094219051 -0.030907242 -0.12070562 -0.037861209 0.064169414 -0.017603058 0.07128308 0.022542691 -0.080010436 -0.0074010058 -0.061102491 0.20009591 0.12526859 0.24195825 0.09610121 0.14622866 0.11701792 -0.14703624 -0.035992838 0.0383671 0.010026691 -0.055914935 -0.037812963 0.027415492 0.18494186 -0.10504553 -0.085078008 -0.10231222 0.075090945 0.080078796 0.10513777 -0.046488434 0.101322 0.050467551 0.010473149 0.088785529 0.023093266 0.12823214 -0.10143972 0.0017411526 -0.060770683 0.0021564753 -0.058672715 0.050458163 -0.099214099 -0.063219264 0.19653617 0.061921138 0.12289806 -0.058554471 -0.039774328 -0.17373991 0.009398981 0.076298431 0.031125974 0.0090150647 -0.12597352 0.10621148 -0.065371342 0.024243625 0.11949141 0.003204043 0.092107005 0.017536564 -0.0026225189 0.16733856 -0.079802439 0.049600139 0.021469379
24 -0.052342013 0.082441732 -0.1861811 0.087468185 -0.11712263 0.036168247 0.017033316 0.14029828 0.11124406 -0.1138545 -0.20659253 0.010409016 -0.11382644 0.051052671 0.058373846 0.13143377 -0.18322694 -0.01049525 -0.042470399 0.20014103 0.0052484386 -0.22523242 -0.24199629 0.097212665 -0.031247018 -0.11520854 0.17708147 0.03043534 -0.071388535 0.035563245 0.23011675 0.18930562 -0.079569973 -0.086268954 0.061380316 -0.056217443 0.010431015 -0.17088193 0.16510978 -0.09000992 0.043886013 -0.11034606 0.021001922 -0.25098771 0.051632296 -0.08407411 0.072432078 0.032980148 -0.071084671 0.023310488 0.17659518 0.12028386 0.065568447 -0.14096773 -0.27008533 -0.020973042 0.087854937 0.071940377 0.066517435 0.11785376 -0.0084956056 -0.12961446 -0.10076369 0.037079301 -0.017396197 0.097392254 0.033319116 -0.1182152 0.0094517376 -0.074168913 0.16130932 0.093332149 0.22765978 0.074301638 0.1284726 0.087882414 -0.19096306 -0.021219097 0.054236978 0.026300699 -0.11218176 0.0018584337 0.023509415 0.2041847 -0.13515715 -0.086898439 -0.13064568 0.095618658 0.072005495 0.063768908 -0.052469708 0.14996108 0.045057885 0.026943078 0.13733105 -0.019655321 0.13158783 -0.056027129 -0.024261061 -0.025004707 -0.044650856 -0.06671562 0.072253115 -0.12518845 -0.082325563 0.24590784 0.061284523 0.081975847 -0.096809871 -0.071846515 -0.12836754 -0.015624832 0.070278935 0.027146662 -0.046963707 -0.076988883 0.090659469 -0.14786181 0.058318514 0.048226107 0.065678298 0.015712069 0.033713151 0.061218161 0.19106284 -0.076067373 0.11891095 0.036518756
8 -0.015899792 0.075824864 -0.18775381 0.098473758 -0.059109572 0.020902749 -0.0079589793 0.19829184 0.037339795 -0.089365721 -0.23795465 0.058106471 -0.072345108 0.12698562 0.096088417 0.11517167 -0.16564684 0.0084674573 -0.042014439 0.15351741 -0.0074132411 -0.20041426 -0.2211398 0.063036151 -0.11311341 -0.082502335 0.18431944 0.013125576 -0.048196986 -0.0072106696 0.16093437 0.19732526 -0.10172547 -0.080587238 -0.0052789696 -0.062335629 0.059224803 -0.11448846 0.16771938 -0.13219067 0.048440676 -0.12687767 -0.027911672 -0.14000177 0.031517923 -0.073311597 0.0027997692 0.036077283 -0.034440845 0.060983103 0.15307808 0.085042797 0.093478858 -0.126693 -0.24445035 -0.059328228 0.046359681 0.032764874 0.078776821 0.094617337 -0.029845521 -0.13102053 -0.047786213 0.063576221 -0.021891903 0.072249204 0.025071112 -0.080285221 -0.014330193 -0.056740444 0.1988617 0.12408252 0.24571437 0.094249524 0.1469183 0.11609974 -0.14081132 -0.034372177 0.039652772 0.0084872693 -0.063324876 -0.032752976 0.03090287 0.18738963 -0.10566498 -0.088486917 -0.10080305 0.072209969 0.080054097 0.10733458 -0.049620274 0.11425671 0.052362613 0.0095425332 0.097467087 0.021548238 0.13652885 -0.10715218 0.001265377 -0.060940281 0.0032233649 -0.058405641 0.056319356 -0.10868044 -0.062725231 0.21398026 0.059035193 0.12849014 -0.062457416 -0.03924999 -0.17845985 0.010187442 0.075436547 0.034086131 0.0045371293 -0.12316877 0.11425425 -0.069281198 0.022622852 0.11817073 0.0070652948 0.094963342 0.023304138 0.0031862229 0.17912295 -0.080858715 0.049752355 0.019599555
9 -0.025673989 0.080212846 -0.18973011 0.099320747 -0.079420313 0.027760182 0.0016650812 0.17928232 0.064748339 -0.095148146 -0.22975957 0.039045773 -0.08199437 0.095799111 0.081502572 0.11987102 -0.17331244 0.0053726961 -0.044548094 0.16324344 -0.00076468289 -0.21003926 -0.22106346 0.076320626 -0.076341815 -0.096734859 0.18320596 0.018427365 -0.051798448 0.0059680534 0.18223649 0.1878626 -0.090466626 -0.08510527 0.016969599 -0.057458613 0.038766593 -0.13399607 0.16521737 -0.11629263 0.044288449 -0.11847889 -0.0068986742 -0.18176042 0.0329604 -0.075075015 0.027897045 0.037213359 -0.045120254 0.046155624 0.16565098 0.10012086 0.082044959 -0.1335621 -0.24973893 -0.042809565 0.060988382 0.045263186 0.076452136 0.10616189 -0.021839304 -0.13095896 -0.066615693 0.053718172 -0.019435039 0.084200844 0.028108424 -0.094347559 -0.0015414133 -0.063862361 0.18237005 0.11512598 0.24093919 0.084704719 0.13949968 0.10836141 -0.16620134 -0.026265532 0.047869336 0.018744307 -0.08296822 -0.017193289 0.02724682 0.19397491 -0.11872806 -0.084518723 -0.11081666 0.082264736 0.075331159 0.087708868 -0.04959828 0.12591708 0.049507566 0.012548554 0.109254 0.0076660071 0.13442627 -0.088333927 -0.014647608 -0.051628273 -0.017088149 -0.057308685 0.060085814 -0.11282048 -0.072907217 0.22283491 0.063409284 0.10625232 -0.069449835 -0.052293107 -0.16169704 0.0037389263 0.076793976 0.036180962 -0.013535874 -0.10926264 0.10441368 -0.098995723 0.034748103 0.092145845 0.026894461 0.067896254 0.02281644 0.026279593 0.18096587 -0.078519702 0.074890837 0.026989901
7 0.027398126 0.054418318 -0.18286911 0.10579149 0.0023216337 0.014615493 -0.026475323 0.26120785 -0.037805967 -0.074692227 -0.28230637 0.095399603 -0.02212571 0.20516376 0.14385867 0.10268173 -0.16225585 0.043585513 -0.035578921 0.10502333 -0.029523635 -0.18561521 -0.20227386 0.030790845 -0.20047516 -0.062663935 0.17908028 -0.005999716 -0.024291968 -0.038920254 0.09098883 0.1987211 -0.13980754 -0.093216442 -0.073148176 -0.079708606 0.12033465 -0.050215568 0.17251393 -0.18024375 0.067686409 -0.15248501 -0.078461342 -0.032643463 0.014332241 -0.077786542 -0.068060413 0.048798896 -0.0016584736 0.11366916 0.14164384 0.068540812 0.11895354 -0.10430247 -0.21449684 -0.098072767 0.0047094086 -0.0077211559 0.088554688 0.080333337 -0.048788525 -0.12940733 0.013435701 0.091708638 -0.021636546 0.053604353 0.029708238 -0.042103544 -0.026806565 -0.043841999 0.22527497 0.15464839 0.27867651 0.10800767 0.16505657 0.14416896 -0.087812848 -0.048865531 0.01308462 -0.0001623616 -0.016593119 -0.067302108 0.040264964 0.18159641 -0.08541923 -0.094256356 -0.070541389 0.051665448 0.058560554 0.15577088 -0.059843279 0.079202659 0.065158717 -0.0078238975 0.043505646 0.071273945 0.14884378 -0.15838766 0.02887493 -0.098522782 0.053675462 -0.035916235 0.034348752 -0.090814061 -0.042025775 0.17820245 0.069900781 0.18935992 -0.016341189 -0.00020996468 -0.21315452 0.044499565 0.090863429 0.035266262 0.069797158 -0.18560445 0.13161519 0.0081075644 -0.016073652 0.19326033 -0.055269588 0.17826916 -0.0035921312 -0.074553773 0.16842483 -0.077165037 -0.027626662 -0.0024013899
30 -0.058753673 0.088074006 -0.1857563 0.087287106 -0.12778465 0.034301944 0.025944971 0.12456645 0.1313834 -0.12165056 -0.19659729 0.0074877469 -0.12500829 0.036844268 0.046910062 0.1398443 -0.18376265 -0.024695769 -0.052025832 0.21324486 0.010491439 -0.22949377 -0.24626306 0.1106521 -0.0081706699 -0.12298263 0.17933081 0.02761936 -0.072707213 0.037144884 0.24764423 0.18854353 -0.070965096 -0.08278279 0.072511204 -0.047973864 -0.0041956687 -0.18476471 0.16595012 -0.079124816 0.042021301 -0.10860209 0.039148826 -0.28383803 0.055885836 -0.086280309 0.091616556 0.033948075 -0.083520137 0.012570049 0.18243906 0.13007523 0.065926552 -0.15467013 -0.29258698 -0.018002182 0.10360375 0.08139953 0.06488438 0.1168173 -0.0073267836 -0.14238805 -0.12210157 0.029478122 -0.0099724522 0.10167228 0.029738298 -0.12784071 0.0091890814 -0.075036675 0.15747064 0.087310016 0.22474854 0.075365588 0.12949218 0.077906474 -0.21058635 -0.020341689 0.064333998 0.02117732 -0.11612289 0.010175075 0.02001561 0.20707567 -0.14169037 -0.086694479 -0.13780694 0.10296339 0.07729049 0.056378972 -0.049139198 0.15599929 0.046557173 0.026924469 0.15700893 -0.027633006 0.13651866 -0.051910762 -0.031397283 -0.0225475 -0.060144756 -0.070090719 0.078494526 -0.13377024 -0.090039186 0.26328477 0.063705094 0.07051947 -0.11487214 -0.085690975 -0.1296344 -0.026371682 0.071034685 0.036784805 -0.059311297 -0.057203792 0.093086846 -0.1681557 0.068252742 0.031675965 0.0787443 -0.0021653636 0.032482114 0.081631415 0.1981084 -0.082547247 0.14004149 0.046006028
6 0.020092973 0.05758059 -0.19281687 0.106303 -0.0091834208 0.022424757 -0.025100645 0.25629747 -0.022595255 -0.07534942 -0.28127542 0.08898323 -0.029078614 0.19529045 0.14260305 0.10760567 -0.16254278 0.037976239 -0.036319923 0.11398491 -0.029041924 -0.19110158 -0.20933114 0.036622111 -0.18271583 -0.072252005 0.17754032 -0.0038934464 -0.032060284 -0.030254195 0.10880645 0.19862701 -0.12971717 -0.094514556 -0.059214611 -0.082763076 0.11066031 -0.059591867 0.16861548 -0.16833733 0.068059623 -0.15113752 -0.067360476 -0.051320847 0.011749088 -0.079178274 -0.060216453 0.048697513 -0.0063353386 0.10807975 0.14896725 0.072917335 0.11694866 -0.10783926 -0.2215358 -0.096103899 0.0094176456 0.0013835361 0.090828776 0.083951317 -0.045741484 -0.13061513 0.0034879188 0.088770747 -0.0174153 0.058449913 0.026665851 -0.049575265 -0.028335476 -0.051997639 0.22767368 0.14925125 0.2771042 0.10872854 0.16913632 0.1424102 -0.096352473 -0.042728998 0.023484491 0.0048941602 -0.027754631 -0.066790782 0.037752271 0.18688625 -0.087345548 -0.094152533 -0.074746832 0.052770428 0.065293975 0.14879037 -0.060763244 0.086851358 0.067987807 -0.0030063998 0.055609811 0.063795924 0.15225245 -0.15265287 0.021252757 -0.088010132 0.046704486 -0.035355996 0.036931247 -0.098716967 -0.046479706 0.17936049 0.071718514 0.17917891 -0.021188928 -0.0026664974 -0.20750783 0.035879552 0.089840613 0.035317168 0.062104777 -0.17790557 0.12872478 -0.011870931 -0.009360428 0.18184151 -0.043500043 0.16234428 0.0030857888 -0.067630664 0.16549614 -0.075449109 -0.017336477 -0.00041149333
28 -0.047734506 0.083432861 -0.18560937 0.084758639 -0.10480412 0.030714778 0.013698434 0.13962197 0.10410484 -0.10623262 -0.2103761 0.017040493 -0.10735035 0.06269604 0.060520768 0.1291541 -0.17791954 -0.0086477231 -0.045043059 0.19601831 0.0087689478 -0.22530979 -0.23922043 0.099398367 -0.040241055 -0.11124992 0.17995104 0.027480895 -0.068460181 0.02877517 0.21944466 0.19393395 -0.081492364 -0.088355102 0.054974899 -0.057624303 0.016956873 -0.15902692 0.1597088 -0.099266775 0.045861367 -0.11234169 0.020990124 -0.23553088 0.04933349 -0.08029063 0.062813193 0.028946282 -0.066708989 0.026190722 0.17224297 0.11603851 0.068588071 -0.14499198 -0.27058524 -0.02505463 0.079505093 0.065649748 0.064233936 0.11134852 -0.017075898 -0.1327077 -0.092875801 0.040990483 -0.012680806 0.094515912 0.029172253 -0.11483213 0.0068358211 -0.074529067 0.16869234 0.10042892 0.22893471 0.073391348 0.12883793 0.091817111 -0.19143648 -0.019430537 0.049791627 0.02351461 -0.10013939 -0.0013937539 0.024133574 0.20449795 -0.13553292 -0.089809775 -0.12683935 0.089813054 0.074985869 0.072312571 -0.055186298 0.14708339 0.043248132 0.025497137 0.13422352 -0.017791832 0.1264836 -0.063834064 -0.020825639 -0.031401154 -0.037882682 -0.063386321 0.069335334 -0.12101194 -0.076057732 0.2440456 0.058502216 0.087542206 -0.096328586 -0.07155253 -0.14186817 -0.01377504 0.072270609 0.029453145 -0.042382192 -0.079757966 0.096917242 -0.13863526 0.054756731 0.056024678 0.058508489 0.029592656 0.027154775 0.054501321 0.18346553 -0.076899111 0.10835703 0.03578135
11 0.02713445 0.06237977 -0.19560105 0.11342793 -0.0059604561 0.019573405 -0.029763561 0.27090842 -0.033495918 -0.076733969 -0.28958344 0.096115813 -0.02649636 0.20582578 0.14723291 0.10891128 -0.16654345 0.042898864 -0.033651408 0.10734878 -0.033454109 -0.19117522 -0.20632607 0.03511643 -0.20057592 -0.062963247 0.18266821 0.00067140441 -0.029226895 -0.035483811 0.097062454 0.20003244 -0.14281709 -0.096988223 -0.07146778 -0.086292423 0.11402331 -0.057444289 0.17688175 -0.18053576 0.066811696 -0.15096064 -0.073584326 -0.036255352 0.011855681 -0.074782729 -0.067761429 0.051240511 -0.0042756791 0.11420564 0.14781393 0.064517736 0.12441205 -0.10290423 -0.21625271 -0.10168274 0.0032754582 -0.0034301861 0.091763996 0.080840416 -0.045432348 -0.13603039 0.010068784 0.090370253 -0.01721588 0.058546111 0.033258725 -0.043749418 -0.033123691 -0.045466192 0.2368584 0.15357354 0.28615224 0.11207397 0.17269841 0.15114522 -0.095098339 -0.049236231 0.019259473 0.0019478888 -0.021326605 -0.070688583 0.038484309 0.18070102 -0.08451885 -0.089286596 -0.070610523 0.05333066 0.062515378 0.15522394 -0.056476861 0.086958319 0.067895956 -0.0075487988 0.047738545 0.07305117 0.14960766 -0.15977685 0.031451527 -0.096323766 0.056513455 -0.035039067 0.039238669 -0.093623675 -0.049153268 0.17314731 0.068786196 0.18774171 -0.013622615 -0.0014637653 -0.21313891 0.040400222 0.087296635 0.037301578 0.068748154 -0.18341364 0.13495257 0.0061730724 -0.016075339 0.18936442 -0.056072004 0.1756319 -0.00023629278 -0.071734361 0.16697145 -0.081044339 -0.024239244 -0.0012306387
20 -0.020537017 0.07828477 -0.1886948 0.10279505 -0.060054403 0.024961216 -0.013928517 0.1940321 0.039923284 -0.087089971 -0.23999624 0.05719085 -0.072064638 0.12515359 0.090868689 0.11477455 -0.16646755 0.0066519114 -0.036176302 0.15297385 -0.012464928 -0.20240542 -0.22538492 0.064064816 -0.11107779 -0.079248779 0.19056036 0.010383423 -0.049382236 -0.006456465 0.16064069 0.19385867 -0.10415916 -0.08193332 -0.0075865076 -0.060841836 0.058993079 -0.1189182 0.16880383 -0.1321744 0.053374074 -0.12462732 -0.027825002 -0.14270896 0.027482927 -0.077714443 0.0032223603 0.039468698 -0.036174551 0.06246965 0.16054209 0.092105404 0.10126512 -0.12905639 -0.2481001 -0.063495427 0.050614204 0.031058626 0.080345221 0.092572391 -0.028287364 -0.13465303 -0.051381845 0.059296217 -0.01536356 0.073264644 0.02213303 -0.083806634 -0.012554385 -0.057466954 0.19418973 0.12392675 0.25005776 0.093826577 0.14408913 0.11953463 -0.14396997 -0.030337943 0.03603154 0.0050188433 -0.062941864 -0.035557806 0.028166013 0.19375558 -0.10496604 -0.089543514 -0.10578629 0.07201153 0.080291584 0.10537417 -0.054468665 0.10983825 0.050711658 0.0035399382 0.099699818 0.021859609 0.1406395 -0.10767271 -0.0035374141 -0.06009081 0.0035826913 -0.062201325 0.052467328 -0.11153266 -0.071005687 0.21437085 0.0575477 0.12643142 -0.062987588 -0.038896315 -0.17449705 0.014264131 0.079357848 0.034507014 0.0053963801 -0.12133036 0.11600647 -0.064849876 0.031506155 0.12012992 0.0023697787 0.089905061 0.018055774 -0.001996998 0.17897293 -0.086500041 0.0464665 0.01578577
5 0.011447828 0.064549252 -0.19273764 0.10457998 -0.026628977 0.025191564 -0.018473474 0.23802613 -0.0041710758 -0.082913734 -0.26979634 0.081846125 -0.041334044 0.17332359 0.12796368 0.10915675 -0.17121926 0.028026978 -0.037235402 0.12267601 -0.021089585 -0.19043709 -0.20995766 0.041365188 -0.16260231 -0.073302232 0.17998919 0.0025466622 -0.033066574 -0.020835152 0.12242427 0.19623213 -0.12356146 -0.092540093 -0.04033716 -0.075931765 0.093073413 -0.076728895 0.1667476 -0.15875511 0.064514987 -0.14371341 -0.055670474 -0.077968426 0.0186725 -0.071816929 -0.041059274 0.045360047 -0.015255779 0.089704268 0.15006737 0.078104652 0.10845467 -0.10825088 -0.22837262 -0.085402541 0.023944579 0.01553215 0.088153049 0.084669285 -0.038823437 -0.13268471 -0.01155442 0.077908076 -0.015385499 0.063758373 0.02683254 -0.058254912 -0.024437847 -0.053841408 0.21305566 0.13912205 0.26627764 0.099671878 0.16162428 0.13435324 -0.11251019 -0.041840687 0.026434641 0.0098044025 -0.039466109 -0.052206621 0.037643842 0.18856582 -0.09767475 -0.091866575 -0.082021892 0.065054327 0.064242162 0.1358155 -0.054332588 0.09327995 0.063141197 0.0027742053 0.071050823 0.053122353 0.14638269 -0.1311781 0.012376647 -0.080634266 0.032049753 -0.045371264 0.043764334 -0.10216185 -0.055227492 0.1852235 0.062202215 0.16323015 -0.035120066 -0.016077867 -0.1966235 0.030185305 0.087540589 0.031638648 0.038485356 -0.15346928 0.125324 -0.030800294 0.0045650741 0.16010258 -0.030777829 0.13842006 0.01146117 -0.04331905 0.16936868 -0.079943173 0.0017528757 0.0037949379
31 -0.045064475 0.081228882 -0.18554315 0.093185835 -0.095913209 0.027754759 0.007479223 0.15164335 0.090837628 -0.10467434 -0.21001989 0.020131947 -0.1029794 0.065745294 0.063654944 0.12289697 -0.17116503 -0.010163836 -0.041829798 0.18236284 0.0065937405 -0.21957405 -0.23592323 0.095204175 -0.049103782 -0.10791786 0.18226866 0.020804251 -0.067531712 0.023872091 0.21104464 0.19104898 -0.07777302 -0.082375802 0.043648548 -0.054875977 0.021268779 -0.15991603 0.16522901 -0.106328 0.04088616 -0.11303153 0.010783033 -0.22375737 0.044613715 -0.078168981 0.049055222 0.031539798 -0.0625927 0.035237487 0.17350256 0.11202777 0.077585548 -0.14453024 -0.26657486 -0.028779987 0.077518933 0.059152152 0.067147829 0.11206761 -0.011303736 -0.13233124 -0.091388479 0.044034172 -0.018214367 0.093232796 0.031374034 -0.11087769 0.0071985614 -0.066563308 0.16901025 0.099444278 0.22949676 0.079825602 0.12610827 0.090005897 -0.17963594 -0.018191868 0.055496871 0.021370968 -0.10089294 -0.0056156931 0.027583897 0.19828387 -0.12546465 -0.08115226 -0.12714678 0.088649899 0.079419412 0.076415345 -0.04685989 0.14001434 0.045947146 0.017503591 0.12883851 -0.013348638 0.13507409 -0.072678238 -0.017980063 -0.03740909 -0.033508521 -0.065558195 0.068959929 -0.11652138 -0.078582801 0.2391659 0.062571093 0.093431458 -0.091958866 -0.060827434 -0.14336234 -0.012229834 0.074213147 0.029659741 -0.038900401 -0.083805524 0.097390123 -0.1292374 0.057976309 0.066845313 0.055455189 0.038298585 0.030832864 0.053012017 0.18453409 -0.081730917 0.10664767 0.038445216
25 -0.039328448 0.075810663 -0.18243432 0.08541216 -0.09914238 0.032368183 0.014188646 0.15412559 0.087206937 -0.10208004 -0.20814538 0.029509101 -0.092768073 0.069616608 0.071865827 0.12474971 -0.17373072 -0.0019221265 -0.040719658 0.18355684 0.0038253921 -0.21109118 -0.22963665 0.08719594 -0.057280265 -0.10515204 0.17105849 0.026496176 -0.062106837 0.022853428 0.20184144 0.1900249 -0.085608214 -0.085905127 0.040162422 -0.055296052 0.029346177 -0.15140697 0.15740292 -0.097377114 0.044827621 -0.1170783 0.011169219 -0.21296749 0.046215113 -0.077580385 0.047034688 0.035781059 -0.059024915 0.032846592 0.17180963 0.11125764 0.076267257 -0.1318408 -0.26476279 -0.031129986 0.075006455 0.062024057 0.064739294 0.10802718 -0.019339647 -0.12758581 -0.080353715 0.048857968 -0.015130493 0.082971349 0.026476935 -0.10089354 0.0015093313 -0.071440011 0.16735034 0.09599191 0.2293997 0.079248413 0.13498402 0.089532875 -0.1758996 -0.018978409 0.04848386 0.018312823 -0.096127488 -0.0044551725 0.024965903 0.19653459 -0.12465642 -0.081191212 -0.11956066 0.087872848 0.071400374 0.079611793 -0.055614632 0.13226758 0.046109363 0.024665624 0.12381938 -0.0079628797 0.13094819 -0.070217438 -0.021475153 -0.033444133 -0.02758001 -0.057673074 0.067716271 -0.11640468 -0.071168609 0.23261163 0.057374593 0.091428168 -0.084225252 -0.06348002 -0.14067264 -0.0068469383 0.069254562 0.028016245 -0.031697862 -0.087451749 0.10048759 -0.11958021 0.046951443 0.071260497 0.040606122 0.037673425 0.030049432 0.045420699 0.18410638 -0.079138629 0.091353409 0.029124632
29 -0.031619579 0.081328094 -0.18719742 0.08959876 -0.087502778 0.030406013 0.0066544996 0.16015954 0.072983563 -0.095295765 -0.22012171 0.02948923 -0.089509696 0.085978843 0.078643143 0.12355544 -0.17322268 0.0020229807 -0.041208357 0.17282972 0.0060830503 -0.20589738 -0.22725701 0.081844173 -0.067171171 -0.10039025 0.17655484 0.018743426 -0.06034356 0.016542695 0.19161397 0.18444422 -0.08387319 -0.087035619 0.030741734 -0.056145035 0.037520185 -0.13381566 0.15984054 -0.10896467 0.047469385 -0.11703523 0.0017748063 -0.18839586 0.037386388 -0.077669315 0.035049696 0.028917275 -0.049935564 0.042117693 0.15743501 0.098046653 0.075208411 -0.12755288 -0.25236818 -0.040724237 0.061290175 0.048943024 0.06542775 0.10007825 -0.021957079 -0.12243031 -0.074202925 0.046965923 -0.019353563 0.085055426 0.023554532 -0.092759572 -0.0062399451 -0.062811002 0.17941621 0.10921299 0.23078376 0.079292104 0.13560639 0.10170307 -0.16746835 -0.025355687 0.046801656 0.019364115 -0.08690159 -0.018025316 0.024500897 0.19319314 -0.12179462 -0.085434824 -0.1141708 0.080432445 0.079276368 0.086018972 -0.053945765 0.12767714 0.052570615 0.020470619 0.1157367 -0.0030819341 0.12985373 -0.075109258 -0.014059079 -0.043628916 -0.022069974 -0.056669623 0.057395324 -0.11541182 -0.069669805 0.2251184 0.055197544 0.10500862 -0.078151852 -0.056735028 -0.14981231 -0.0039526233 0.066542365 0.026470108 -0.025334429 -0.096597083 0.099491775 -0.11020763 0.042109501 0.07882347 0.035346083 0.055806242 0.027101284 0.032587852 0.17693304 -0.079139553 0.07837946 0.031711172
26 -0.042073805 0.084125146 -0.18354748 0.085810669 -0.10911915 0.037864953 0.010946668 0.14649658 0.099334672 -0.11208927 -0.20842607 0.019220278 -0.10651833 0.064372711 0.069021292 0.12974474 -0.17961341 -0.011131123 -0.041331246 0.19252087 0.0063976324 -0.22188948 -0.23458782 0.0933498 -0.046128783 -0.11181556 0.17560396 0.028608356 -0.066620171 0.024657046 0.21519916 0.19049789 -0.083010659 -0.09029527 0.055198871 -0.05351321 0.022333659 -0.15747534 0.16279039 -0.098319396 0.052072629 -0.11463586 0.020636562 -0.2384223 0.044691149 -0.084218837 0.0637758 0.033876486 -0.068911202 0.024691593 0.17787163 0.11851065 0.071173973 -0.13807826 -0.27687606 -0.026620517 0.078157373 0.068409771 0.063042976 0.11100274 -0.021334996 -0.13555248 -0.095833294 0.045207053 -0.0094649205 0.089869797 0.026254419 -0.11230808 0.0054678358 -0.069169603 0.16467546 0.092067279 0.22472081 0.072346993 0.12852319 0.086959705 -0.18191585 -0.020539878 0.046527967 0.024121808 -0.10146737 -0.0051591625 0.02011832 0.19875304 -0.12753901 -0.087512784 -0.11913264 0.09056665 0.076023638 0.06868317 -0.056430686 0.14692348 0.050614413 0.02662473 0.12761699 -0.014048426 0.12584904 -0.06220299 -0.019881485 -0.028291684 -0.033465728 -0.058216304 0.06747628 -0.12134898 -0.080653667 0.2383748 0.056323357 0.088423043 -0.091676965 -0.068473741 -0.13823225 -0.0076542571 0.068114311 0.027331611 -0.041075658 -0.079850674 0.093661733 -0.13374415 0.058433533 0.055193972 0.052484717 0.023993731 0.029022418 0.055320032 0.1804685 -0.07565023 0.10838988 0.033478383
27 -0.055183969 0.093261845 -0.19068153 0.095005088 -0.11585343 0.036731828 0.016622858 0.14571874 0.10888841 -0.114347 -0.21120737 0.015649062 -0.11359936 0.052432135 0.061319776 0.13883707 -0.1813295 -0.017275106 -0.047047049 0.20389262 0.0084363762 -0.2338106 -0.25204769 0.10115375 -0.028720364 -0.11802776 0.19130857 0.029293548 -0.071641721 0.035212521 0.23471886 0.20033211 -0.072080933 -0.083964624 0.060640227 -0.055466089 0.011528661 -0.17500947 0.16585712 -0.0945618 0.040029019 -0.1086923 0.027706429 -0.25100893 0.046651278 -0.080339476 0.070017003 0.026610628 -0.073681593 0.019832874 0.18024071 0.11842687 0.06630484 -0.14537407 -0.28114003 -0.023930226 0.089058131 0.074323572 0.061061524 0.11424809 -0.0090632038 -0.14009953 -0.10607297 0.039589841 -0.0093575101 0.094400011 0.026494866 -0.12219585 0.010465192 -0.073383436 0.16113773 0.09401837 0.22505994 0.078336433 0.12815987 0.084553726 -0.19763564 -0.022610297 0.056059133 0.020646315 -0.10918506 0.001296178 0.022980221 0.21203743 -0.14229958 -0.08958637 -0.13428438 0.0988084 0.079483859 0.068312392 -0.04760411 0.1512818 0.043839142 0.026439566 0.14566199 -0.020029835 0.13274674 -0.06299758 -0.02980409 -0.030940557 -0.047802176 -0.073954985 0.068730392 -0.13331237 -0.089541413 0.25061369 0.062905103 0.078878678 -0.10165253 -0.071367092 -0.14336862 -0.019649323 0.069819227 0.036605958 -0.049694635 -0.079152703 0.095414698 -0.14584255 0.070327714 0.052127793 0.067013621 0.018988796 0.038116753 0.062626354 0.19718985 -0.08386188 0.12495655 0.040652905
16 -0.039840184 0.083904155 -0.1900117 0.090624727 -0.096567996 0.031871676 0.011865253 0.15874681 0.088842973 -0.10742252 -0.22009709 0.03011637 -0.097756378 0.075325243 0.072601974 0.13105771 -0.17800127 -0.0041318289 -0.049793277 0.18715946 0.0048098951 -0.21757209 -0.24035141 0.089296833 -0.052402947 -0.11059956 0.1812055 0.026343839 -0.063011564 0.022700869 0.20781736 0.19115858 -0.086179398 -0.090668842 0.04424303 -0.052562959 0.030203236 -0.15410888 0.16043089 -0.099609643 0.047865078 -0.12047614 0.011004864 -0.21880344 0.041023284 -0.078623846 0.053634375 0.03502446 -0.060609113 0.037102673 0.17037654 0.10663426 0.079958752 -0.14279506 -0.26719171 -0.035587776 0.079781361 0.05985447 0.06727311 0.11135262 -0.020123038 -0.13707946 -0.085929357 0.043782178 -0.016495654 0.08771155 0.026144249 -0.10426632 -0.0028525153 -0.073007807 0.17620371 0.10489655 0.23617056 0.085423298 0.13441686 0.095004812 -0.18054271 -0.023235988 0.054745547 0.020669498 -0.097640038 -0.011278719 0.025901688 0.19409701 -0.12967077 -0.085420832 -0.11606108 0.091479294 0.081159376 0.07419242 -0.054462753 0.13846301 0.049339954 0.02501435 0.12869182 -0.0041282796 0.13810164 -0.070968628 -0.021249242 -0.034314897 -0.031041197 -0.061776485 0.068286277 -0.12261934 -0.077311195 0.24042341 0.063457422 0.098901927 -0.084408365 -0.066416882 -0.15178256 -0.0075051235 0.069792368 0.02884491 -0.035885546 -0.091973744 0.10208765 -0.12811925 0.048563264 0.068595633 0.042117603 0.042238131 0.026442423 0.047454201 0.1878947 -0.082159691 0.095848575 0.032366816
18 -0.0066475952 0.072187617 -0.19117483 0.10664712 -0.041053414 0.019923124 -0.02136156 0.21794038 0.018527696 -0.082957499 -0.25496447 0.065691479 -0.063414648 0.14614114 0.10187069 0.11429358 -0.17353554 0.015956778 -0.034776073 0.13809973 -0.01691626 -0.19604746 -0.21715376 0.056561045 -0.13380784 -0.073178537 0.19068655 0.0091034528 -0.040326007 -0.013991522 0.14379922 0.19949688 -0.11503426 -0.089646503 -0.021905055 -0.069851063 0.074499235 -0.1015732 0.17119354 -0.14538005 0.054930467 -0.1342556 -0.034040425 -0.11641545 0.028695185 -0.07141155 -0.021261189 0.040734656 -0.024021534 0.072927751 0.15157378 0.081774205 0.10601529 -0.12203305 -0.24378729 -0.069537781 0.037165057 0.02669677 0.083994105 0.090790123 -0.035151519 -0.12946641 -0.030934665 0.071867816 -0.019060494 0.067108363 0.027368039 -0.074479178 -0.013643458 -0.054091673 0.21059962 0.13717251 0.26023212 0.10336917 0.15662624 0.12456705 -0.1378514 -0.034849267 0.035510167 0.005066907 -0.051632579 -0.041749962 0.028662225 0.19093885 -0.1030866 -0.093826935 -0.09732271 0.073839121 0.07940983 0.12070353 -0.052881952 0.10101658 0.051929481 0.0010664314 0.085037418 0.036520589 0.13792406 -0.12147863 0.0053310916 -0.065532438 0.015466675 -0.054863285 0.054729298 -0.10842106 -0.059483062 0.20425667 0.059325285 0.14246191 -0.047141369 -0.031962685 -0.18353412 0.016755283 0.083517179 0.034994334 0.019363534 -0.14305806 0.11563659 -0.050001144 0.014592843 0.14287484 -0.0084268441 0.11705814 0.013802673 -0.015372002 0.17531842 -0.08608643 0.032718915 0.011836293
17 0.011905711 0.061687842 -0.18619399 0.10333969 -0.014282266 0.02218074 -0.025441796 0.2567502 -0.017991859 -0.083691247 -0.27982587 0.086373992 -0.028233327 0.18920483 0.14097476 0.11123434 -0.17185335 0.040557239 -0.030885901 0.11467715 -0.032651436 -0.19115454 -0.2129875 0.033598419 -0.1876903 -0.074063629 0.17781182 0.0011887627 -0.027476642 -0.023899252 0.11481092 0.20351091 -0.13730755 -0.097142115 -0.05375303 -0.086126499 0.11110041 -0.068911202 0.17843184 -0.1717304 0.071564905 -0.14803383 -0.069152221 -0.05847666 0.016876452 -0.075182818 -0.04693808 0.05075014 -0.010748478 0.10805765 0.15271801 0.070029646 0.11695819 -0.10132139 -0.22588831 -0.092262581 0.013017866 0.00016615997 0.09053205 0.087419525 -0.046534635 -0.13475306 -0.0042574597 0.088643193 -0.019034065 0.06653101 0.03360261 -0.053553332 -0.028653186 -0.049593594 0.22377622 0.15418297 0.27411249 0.10609763 0.17191994 0.14216954 -0.095961668 -0.040630408 0.019363364 0.00045372895 -0.033096984 -0.060470961 0.033586677 0.18050228 -0.093977705 -0.090828799 -0.075680569 0.058528464 0.057942268 0.14842446 -0.060673174 0.093434379 0.067072988 -0.0076622861 0.054734021 0.064110622 0.15139951 -0.14604412 0.02800745 -0.089626044 0.050193992 -0.034922339 0.048458766 -0.093321465 -0.044847462 0.18557283 0.071736105 0.18030876 -0.02259841 -0.013486282 -0.20351115 0.032418068 0.09040273 0.03178449 0.05573396 -0.17180534 0.12914325 -0.0070973551 -0.0090000732 0.17043139 -0.046429276 0.16403821 0.00063067622 -0.062549353 0.16860619 -0.073552251 -0.0085117538 0.0050340286
23 -0.038136605 0.085361466 -0.18922843 0.098308109 -0.088972807 0.03223183 0.0013536789 0.17280699 0.080205187 -0.09942387 -0.22679442 0.034358162 -0.093588792 0.089820698 0.072780252 0.12806509 -0.17984475 0.00048441964 -0.044067089 0.1829638 0.0013395158 -0.22118174 -0.2381013 0.0850114 -0.065571249 -0.10332941 0.18703601 0.024337908 -0.058071293 0.018783577 0.20067406 0.19888283 -0.093274511 -0.091047704 0.030073129 -0.063756496 0.037184123 -0.14480814 0.16907302 -0.1183895 0.050558083 -0.12279236 -0.0026932778 -0.20719615 0.038285736 -0.080190443 0.033932716 0.037143946 -0.056141976 0.046338134 0.16976464 0.10525867 0.082674138 -0.14290716 -0.27067679 -0.03904362 0.071313091 0.053731646 0.070262671 0.10568584 -0.019918168 -0.1387662 -0.076375872 0.050462667 -0.01746136 0.090812363 0.030593272 -0.10368737 -0.0003960153 -0.072006479 0.18877804 0.11026565 0.24123205 0.088819556 0.14229843 0.10682339 -0.18003584 -0.029592345 0.048767194 0.01593334 -0.092409812 -0.019144138 0.02357877 0.20471193 -0.13009813 -0.088966295 -0.1228273 0.08764828 0.081963539 0.090997875 -0.049301922 0.13790025 0.05481014 0.014335043 0.12260143 -0.0026605744 0.14192125 -0.085748538 -0.015322402 -0.044772174 -0.022532029 -0.062645137 0.065076508 -0.12025221 -0.075093687 0.23204462 0.060637571 0.10398319 -0.082806438 -0.055937331 -0.1591032 -0.0045917896 0.079325236 0.034760531 -0.02472477 -0.10126781 0.10566363 -0.11785956 0.049331807 0.083961822 0.04101738 0.056316473 0.030944217 0.032737173 0.18763256 -0.086567372 0.091829933 0.02789199
21 -0.040775623 0.082857043 -0.17908582 0.088011421 -0.098573178 0.027607912 0.0105405 0.14276958 0.094065249 -0.10263612 -0.20684886 0.027924243 -0.093140237 0.068473957 0.064703591 0.1248112 -0.16652836 -0.0090910615 -0.046432294 0.17912994 0.003599178 -0.21178217 -0.22744574 0.092224464 -0.043404821 -0.10179498 0.17401138 0.027968789 -0.061058398 0.024182361 0.20166019 0.18253185 -0.080126189 -0.077699162 0.043205895 -0.052501094 0.018905511 -0.15451308 0.15812607 -0.09990371 0.046376616 -0.11222546 0.012124346 -0.22108357 0.045061063 -0.077712826 0.051428717 0.034238994 -0.057941996 0.03512238 0.16613483 0.10793101 0.074042343 -0.13624161 -0.2543751 -0.033280954 0.075406969 0.059891298 0.065834805 0.10646661 -0.017528944 -0.12528163 -0.088995814 0.037474275 -0.019207474 0.091135256 0.029107783 -0.11018126 -0.0014645549 -0.073824286 0.17212562 0.10379212 0.22880563 0.082227625 0.13359183 0.094077475 -0.18245161 -0.01851197 0.05688649 0.018270185 -0.097951055 -0.0038202843 0.026160944 0.1972001 -0.1234665 -0.081165835 -0.12439865 0.088423014 0.079241171 0.069710761 -0.052496921 0.13896063 0.05098334 0.021269584 0.1312791 -0.013288686 0.13283314 -0.072142437 -0.022566132 -0.035656083 -0.031423818 -0.067202806 0.062127654 -0.1185112 -0.076023981 0.22684585 0.059346125 0.088931195 -0.08905828 -0.0603358 -0.14072949 -0.011403116 0.06523528 0.034664202 -0.037529398 -0.082208745 0.097656667 -0.12551939 0.052373353 0.059950553 0.052761853 0.030505562 0.032141827 0.051370457 0.17507148 -0.079882488 0.10041168 0.032322742
10 -0.038405385 0.083930187 -0.18654169 0.093118034 -0.092282511 0.027985139 0.0076338546 0.16522674 0.081352599 -0.10273319 -0.2231212 0.031543288 -0.096365429 0.081587352 0.076496117 0.12434896 -0.17671476 -0.0016430935 -0.04249068 0.17784178 0.004818806 -0.21653725 -0.23137555 0.087442182 -0.060110658 -0.10572375 0.18601617 0.020981537 -0.059741486 0.0164613 0.20379214 0.19458424 -0.087863848 -0.089492746 0.032608174 -0.057793766 0.033292312 -0.1521118 0.17134604 -0.10834745 0.048742272 -0.11678542 0.0043135681 -0.20918165 0.042921141 -0.079380289 0.04188294 0.033378266 -0.056667399 0.041997444 0.17399864 0.11143992 0.078207456 -0.14536558 -0.26994783 -0.039814316 0.076610096 0.057556704 0.07557632 0.10701908 -0.021261295 -0.13306086 -0.082271427 0.048039552 -0.015076051 0.090823576 0.026459355 -0.10042844 -0.002670778 -0.070549227 0.18502018 0.10979087 0.2435942 0.089158699 0.13602319 0.10019317 -0.17800994 -0.026926454 0.049953353 0.021418603 -0.093940347 -0.015951877 0.027841875 0.20385204 -0.12602937 -0.090678021 -0.11934914 0.086991414 0.082259163 0.085073099 -0.052429743 0.13599971 0.048761386 0.016963528 0.12071442 -0.00098083983 0.14055584 -0.082936607 -0.012571224 -0.039112203 -0.025010562 -0.068219446 0.068314783 -0.11769008 -0.075344227 0.23615685 0.066303767 0.10322489 -0.086436644 -0.058374412 -0.15298921 -0.0027798181 0.07756792 0.029926475 -0.026758848 -0.10203178 0.10377727 -0.11702017 0.045566302 0.079475798 0.041297071 0.053864978 0.030778253 0.034795292 0.18941513 -0.084347539 0.092299744 0.030061232
13 -0.011634154 0.07477662 -0.17533825 0.10030789 -0.046278056 0.017023679 -0.013864771 0.19877096 0.021844188 -0.083439618 -0.23365587 0.057722159 -0.06451878 0.12932873 0.099696703 0.10890111 -0.16005236 0.017590506 -0.03836843 0.13127221 -0.008508753 -0.18558894 -0.20714965 0.059256073 -0.12325271 -0.072024375 0.17773467 0.011698087 -0.044607647 -0.0074952594 0.14028338 0.18992543 -0.10315243 -0.081344254 -0.016656745 -0.060257591 0.06631837 -0.1016157 0.15842479 -0.13492405 0.047045052 -0.12100314 -0.031655572 -0.11637682 0.027939778 -0.069114283 -0.011344372 0.036963906 -0.029552771 0.063662842 0.14359362 0.076380558 0.098647207 -0.1139906 -0.22985159 -0.064452596 0.040251926 0.030222161 0.076731876 0.084329389 -0.031114863 -0.12359767 -0.033161212 0.059393764 -0.018504774 0.068891466 0.022008263 -0.068606019 -0.01564827 -0.054629743 0.20024197 0.12528017 0.23622879 0.091839753 0.14771679 0.11389697 -0.13701493 -0.031611651 0.034651585 0.0097980294 -0.053291947 -0.0408861 0.030795483 0.18067248 -0.097962208 -0.086409643 -0.091073349 0.074127689 0.079098493 0.11306292 -0.04912129 0.098166205 0.047324382 0.0084842155 0.079408117 0.030059824 0.13278201 -0.1061862 0.0088951867 -0.058986425 0.013792379 -0.055888034 0.051463827 -0.10223682 -0.057176445 0.1913621 0.060629249 0.13053519 -0.050198741 -0.032905471 -0.17593302 0.013363512 0.072650351 0.026846448 0.012429436 -0.13115031 0.10732919 -0.053906739 0.021165958 0.12430295 -0.0015558456 0.10375331 0.0180446 -0.006647212 0.1652993 -0.07829576 0.033063453 0.017910104
19 -0.045405325 0.083853438 -0.17939113 0.085780963 -0.11500307 0.032703716 0.01784247 0.12590189 0.10932525 -0.10767467 -0.19606741 0.015710823 -0.10632592 0.043027133 0.053252395 0.12413912 -0.17357668 -0.01753721 -0.047378164 0.19409548 0.011935457 -0.21661495 -0.23127571 0.099243231 -0.024221428 -0.11072574 0.17220819 0.02536821 -0.069004439 0.029446159 0.22458249 0.1860833 -0.071672425 -0.081825688 0.062176276 -0.051429886 0.010649309 -0.16566715 0.15558174 -0.083867185 0.042865157 -0.1071003 0.021398984 -0.24836519 0.050559781 -0.077972896 0.069375969 0.032838214 -0.06716837 0.017180717 0.17171891 0.11751356 0.067294449 -0.14387909 -0.26823729 -0.021060718 0.08971341 0.067174174 0.065422527 0.1119482 -0.0093282796 -0.130705 -0.099005595 0.033758424 -0.016888034 0.093919441 0.025963739 -0.11528943 0.007991245 -0.076564834 0.16035028 0.086971238 0.21841343 0.073611178 0.12766272 0.082189173 -0.19151133 -0.018125756 0.056050826 0.027374052 -0.10872376 0.0031694851 0.019411873 0.20199862 -0.13029318 -0.081954785 -0.12741515 0.094557166 0.078163959 0.060334284 -0.045945942 0.1487854 0.046923466 0.024707431 0.13909866 -0.018711094 0.12858954 -0.057830632 -0.026357656 -0.02325511 -0.047558121 -0.064087242 0.068129152 -0.12298779 -0.078497 0.23887968 0.060557336 0.076297872 -0.099336125 -0.072022028 -0.12686482 -0.018859953 0.064565286 0.032739412 -0.047010791 -0.067013234 0.087647781 -0.14551671 0.062588543 0.042383008 0.06487564 0.011684802 0.029422324 0.063287757 0.18407156 -0.076730616 0.11718429 0.034277879
22 -0.015654128 0.079296865 -0.18496665 0.095127441 -0.061537132 0.025382992 -0.012723261 0.18644518 0.041369952 -0.085564047 -0.23501052 0.049366307 -0.06961409 0.12036092 0.088016793 0.1119792 -0.16988607 0.0077813603 -0.0394306 0.15132287 -0.0090571623 -0.19719659 -0.22244725 0.069871776 -0.1057079 -0.083099745 0.18333 0.020184319 -0.050173525 -0.0058073695 0.16364028 0.19230846 -0.097427443 -0.081670262 -0.0029083185 -0.060371533 0.059225369 -0.12018401 0.16665843 -0.12745573 0.04982898 -0.12344589 -0.019534577 -0.14367414 0.029708534 -0.071770191 0.0086641377 0.031293102 -0.033182096 0.063334502 0.15283382 0.086125091 0.097350746 -0.12532781 -0.24838307 -0.05894839 0.047022417 0.032138672 0.078010574 0.091320924 -0.024740323 -0.12728283 -0.046790108 0.055916876 -0.016198345 0.075036272 0.023306599 -0.085817195 -0.011465145 -0.063020736 0.19883537 0.1221918 0.24399181 0.095952637 0.14454125 0.11622178 -0.14946301 -0.030203076 0.041993812 0.0069548753 -0.066755608 -0.031808663 0.026877496 0.18893825 -0.10721549 -0.085780077 -0.10613872 0.07962133 0.077934198 0.10178957 -0.053538691 0.11110205 0.050535396 0.0058369287 0.095848426 0.018675039 0.13181107 -0.10136896 -0.0027019477 -0.05611933 0.00069354335 -0.059867091 0.054200593 -0.10920332 -0.067621201 0.20610416 0.058614321 0.12608741 -0.063147411 -0.044825301 -0.17316335 0.010733109 0.077828534 0.035235249 0.0029235156 -0.11629024 0.10940344 -0.075058408 0.028164782 0.10908441 0.0075132544 0.085830986 0.023621362 0.0072194091 0.17210619 -0.08228948 0.051521268 0.019373892
15 -0.042578083 0.08082556 -0.18716328 0.086540371 -0.10641577 0.03397328 0.014474979 0.1467481 0.096503176 -0.10356101 -0.21322125 0.024841666 -0.10631382 0.061342601 0.062177207 0.12933266 -0.18093947 -0.011423497 -0.045116864 0.18863234 0.0067923171 -0.22331752 -0.23880723 0.097681209 -0.045043468 -0.11061157 0.1778342 0.025540443 -0.068036005 0.028681044 0.21958384 0.19405174 -0.079969652 -0.082070395 0.045698557 -0.057350665 0.019641316 -0.15852189 0.16073672 -0.097173087 0.041536096 -0.11334656 0.014454746 -0.23407328 0.044522353 -0.080922849 0.059509583 0.033047032 -0.065434448 0.029907392 0.17483364 0.11275012 0.072169751 -0.14474824 -0.2746354 -0.025917394 0.08559081 0.068262868 0.068025962 0.11012737 -0.013050557 -0.13178976 -0.093479306 0.039893541 -0.014196985 0.096014597 0.030345703 -0.1127424 0.001458924 -0.072424486 0.17301592 0.097889446 0.23329204 0.076292299 0.12855083 0.092842594 -0.19033207 -0.019348517 0.051248346 0.023352422 -0.098607764 -0.0075974008 0.022156108 0.20020527 -0.13308403 -0.086479396 -0.1212009 0.09355031 0.082855113 0.07558427 -0.051170461 0.14503206 0.048013244 0.025014333 0.12840344 -0.016390717 0.13614288 -0.069801413 -0.021021809 -0.035288565 -0.038201924 -0.068876535 0.07133662 -0.11871874 -0.07542 0.24323523 0.058493152 0.09325669 -0.08947482 -0.068168558 -0.14146161 -0.012924344 0.068107948 0.029627254 -0.043121953 -0.084419705 0.10019252 -0.1384394 0.055875435 0.062667869 0.051063959 0.033685967 0.029558986 0.051849741 0.18419094 -0.083939031 0.11081937 0.03794283
12 -0.0052809827 0.068258256 -0.17499784 0.098942332 -0.0473154 0.018672656 -0.01807617 0.19965655 0.022725543 -0.083090924 -0.23744808 0.060979366 -0.062171318 0.13287188 0.097320095 0.1036639 -0.15957388 0.017078584 -0.040510166 0.13631541 -0.010946425 -0.19033417 -0.2054657 0.053056542 -0.12001507 -0.077072904 0.1763387 0.014747819 -0.040217262 -0.01294168 0.14304677 0.18491226 -0.10272729 -0.078836136 -0.01667227 -0.062887348 0.064651586 -0.099652283 0.15612081 -0.13546859 0.048950333 -0.11995601 -0.028302096 -0.11275186 0.020574294 -0.069502182 -0.014219902 0.032228433 -0.024964381 0.067030661 0.14435668 0.083323322 0.097410031 -0.11817992 -0.23134671 -0.0602865 0.039401907 0.023969484 0.077586673 0.088652968 -0.030460313 -0.12282256 -0.031911504 0.064311944 -0.018721148 0.071116783 0.022551013 -0.06678275 -0.015557137 -0.058083184 0.19910328 0.12231351 0.24209294 0.092785627 0.1436238 0.11337409 -0.13696904 -0.029496131 0.032082282 0.0089239171 -0.055267591 -0.038605332 0.027406432 0.17693587 -0.10153333 -0.081990868 -0.088672645 0.065233752 0.073083341 0.1113589 -0.045831423 0.097244941 0.050595686 0.0046760575 0.083973236 0.033105303 0.12902048 -0.10844699 0.0051164087 -0.062977232 0.0063326787 -0.051256999 0.044016309 -0.10229866 -0.058955945 0.19415747 0.062169038 0.13100265 -0.044716682 -0.034526918 -0.17673016 0.016421707 0.077415369 0.032171082 0.017022174 -0.12655549 0.1121463 -0.055990115 0.021635326 0.12607233 -0.0063930256 0.10158896 0.017853558 -0.0086484943 0.16538677 -0.072649233 0.034559526 0.01498026
